digraph Tree {
node [shape=box, style="filled, rounded", color="black", fontname=helvetica] ;
edge [fontname=helvetica] ;
0 [label="Fare <= 2.5\ngini = 0.485\nsamples = 891\nvalue = [523, 368]\nclass = Died", fillcolor="#e581394c"] ;
1 [label="Fare <= 0.5\ngini = 0.383\nsamples = 669\nvalue = [496, 173]\nclass = Died", fillcolor="#e58139a6"] ;
0 -> 1 [labeldistance=2.5, labelangle=45, headlabel="True"] ;
2 [label="gini = 0.0\nsamples = 223\nvalue = [223, 0]\nclass = Died", fillcolor="#e58139ff"] ;
1 -> 2 ;
3 [label="Embarked <= 0.5\ngini = 0.475\nsamples = 446\nvalue = [273, 173]\nclass = Died", fillcolor="#e581395d"] ;
1 -> 3 ;
4 [label="Fare <= 1.5\ngini = 0.387\nsamples = 362\nvalue = [267, 95]\nclass = Died", fillcolor="#e58139a4"] ;
3 -> 4 ;
5 [label="Pclass <= 2.5\ngini = 0.499\nsamples = 200\nvalue = [105, 95]\nclass = Died", fillcolor="#e5813918"] ;
4 -> 5 ;
6 [label="Sex <= 0.5\ngini = 0.26\nsamples = 78\nvalue = [12, 66]\nclass = Survived", fillcolor="#399de5d1"] ;
5 -> 6 ;
7 [label="Age <= 1.5\ngini = 0.5\nsamples = 24\nvalue = [12, 12]\nclass = Died", fillcolor="#e5813900"] ;
6 -> 7 ;
8 [label="Title <= 3.5\ngini = 0.142\nsamples = 13\nvalue = [12, 1]\nclass = Died", fillcolor="#e58139ea"] ;
7 -> 8 ;
9 [label="gini = 0.0\nsamples = 3\nvalue = [3, 0]\nclass = Died", fillcolor="#e58139ff"] ;
8 -> 9 ;
10 [label="gini = 0.18\nsamples = 10\nvalue = [9, 1]\nclass = Died", fillcolor="#e58139e3"] ;
8 -> 10 ;
11 [label="gini = 0.0\nsamples = 11\nvalue = [0, 11]\nclass = Survived", fillcolor="#399de5ff"] ;
7 -> 11 ;
12 [label="gini = 0.0\nsamples = 54\nvalue = [0, 54]\nclass = Survived", fillcolor="#399de5ff"] ;
6 -> 12 ;
13 [label="Title <= 2.5\ngini = 0.362\nsamples = 122\nvalue = [93, 29]\nclass = Died", fillcolor="#e58139af"] ;
5 -> 13 ;
14 [label="gini = 0.0\nsamples = 93\nvalue = [93, 0]\nclass = Died", fillcolor="#e58139ff"] ;
13 -> 14 ;
15 [label="gini = 0.0\nsamples = 29\nvalue = [0, 29]\nclass = Survived", fillcolor="#399de5ff"] ;
13 -> 15 ;
16 [label="gini = 0.0\nsamples = 162\nvalue = [162, 0]\nclass = Died", fillcolor="#e58139ff"] ;
4 -> 16 ;
17 [label="Fare <= 1.5\ngini = 0.133\nsamples = 84\nvalue = [6, 78]\nclass = Survived", fillcolor="#399de5eb"] ;
3 -> 17 ;
18 [label="Pclass <= 2.5\ngini = 0.415\nsamples = 17\nvalue = [5, 12]\nclass = Survived", fillcolor="#399de595"] ;
17 -> 18 ;
19 [label="Sex <= 0.5\ngini = 0.469\nsamples = 8\nvalue = [5, 3]\nclass = Died", fillcolor="#e5813966"] ;
18 -> 19 ;
20 [label="gini = 0.0\nsamples = 5\nvalue = [5, 0]\nclass = Died", fillcolor="#e58139ff"] ;
19 -> 20 ;
21 [label="gini = 0.0\nsamples = 3\nvalue = [0, 3]\nclass = Survived", fillcolor="#399de5ff"] ;
19 -> 21 ;
22 [label="gini = 0.0\nsamples = 9\nvalue = [0, 9]\nclass = Survived", fillcolor="#399de5ff"] ;
18 -> 22 ;
23 [label="Pclass <= 2.5\ngini = 0.029\nsamples = 67\nvalue = [1, 66]\nclass = Survived", fillcolor="#399de5fb"] ;
17 -> 23 ;
24 [label="Sex <= 0.5\ngini = 0.083\nsamples = 23\nvalue = [1, 22]\nclass = Survived", fillcolor="#399de5f3"] ;
23 -> 24 ;
25 [label="IsAlone <= 0.5\ngini = 0.32\nsamples = 5\nvalue = [1, 4]\nclass = Survived", fillcolor="#399de5bf"] ;
24 -> 25 ;
26 [label="Age <= 0.5\ngini = 0.5\nsamples = 2\nvalue = [1, 1]\nclass = Died", fillcolor="#e5813900"] ;
25 -> 26 ;
27 [label="gini = 0.0\nsamples = 1\nvalue = [0, 1]\nclass = Survived", fillcolor="#399de5ff"] ;
26 -> 27 ;
28 [label="gini = 0.0\nsamples = 1\nvalue = [1, 0]\nclass = Died", fillcolor="#e58139ff"] ;
26 -> 28 ;
29 [label="gini = 0.0\nsamples = 3\nvalue = [0, 3]\nclass = Survived", fillcolor="#399de5ff"] ;
25 -> 29 ;
30 [label="gini = 0.0\nsamples = 18\nvalue = [0, 18]\nclass = Survived", fillcolor="#399de5ff"] ;
24 -> 30 ;
31 [label="gini = 0.0\nsamples = 44\nvalue = [0, 44]\nclass = Survived", fillcolor="#399de5ff"] ;
23 -> 31 ;
32 [label="Pclass <= 2.5\ngini = 0.214\nsamples = 222\nvalue = [27, 195]\nclass = Survived", fillcolor="#399de5dc"] ;
0 -> 32 [labeldistance=2.5, labelangle=-45, headlabel="False"] ;
33 [label="FamilySize <= 3.5\ngini = 0.022\nsamples = 181\nvalue = [2, 179]\nclass = Survived", fillcolor="#399de5fc"] ;
32 -> 33 ;
34 [label="gini = 0.0\nsamples = 161\nvalue = [0, 161]\nclass = Survived", fillcolor="#399de5ff"] ;
33 -> 34 ;
35 [label="Pclass <= 1.5\ngini = 0.18\nsamples = 20\nvalue = [2, 18]\nclass = Survived", fillcolor="#399de5e3"] ;
33 -> 35 ;
36 [label="gini = 0.0\nsamples = 13\nvalue = [0, 13]\nclass = Survived", fillcolor="#399de5ff"] ;
35 -> 36 ;
37 [label="Age <= 0.5\ngini = 0.408\nsamples = 7\nvalue = [2, 5]\nclass = Survived", fillcolor="#399de599"] ;
35 -> 37 ;
38 [label="gini = 0.0\nsamples = 3\nvalue = [0, 3]\nclass = Survived", fillcolor="#399de5ff"] ;
37 -> 38 ;
39 [label="Title <= 2.0\ngini = 0.5\nsamples = 4\nvalue = [2, 2]\nclass = Died", fillcolor="#e5813900"] ;
37 -> 39 ;
40 [label="gini = 0.0\nsamples = 1\nvalue = [0, 1]\nclass = Survived", fillcolor="#399de5ff"] ;
39 -> 40 ;
41 [label="Age <= 1.5\ngini = 0.444\nsamples = 3\nvalue = [2, 1]\nclass = Died", fillcolor="#e581397f"] ;
39 -> 41 ;
42 [label="gini = 0.0\nsamples = 2\nvalue = [2, 0]\nclass = Died", fillcolor="#e58139ff"] ;
41 -> 42 ;
43 [label="gini = 0.0\nsamples = 1\nvalue = [0, 1]\nclass = Survived", fillcolor="#399de5ff"] ;
41 -> 43 ;
44 [label="Title <= 2.5\ngini = 0.476\nsamples = 41\nvalue = [25, 16]\nclass = Died", fillcolor="#e581395c"] ;
32 -> 44 ;
45 [label="gini = 0.0\nsamples = 25\nvalue = [25, 0]\nclass = Died", fillcolor="#e58139ff"] ;
44 -> 45 ;
46 [label="gini = 0.0\nsamples = 16\nvalue = [0, 16]\nclass = Survived", fillcolor="#399de5ff"] ;
44 -> 46 ;
}